{
    "W1":[
        [
            0.0008112608965230808,
            0.0007929801718295605,
            0.008522673933793417,
            -0.0015349530370160924
        ],
        [
            -0.0004855031866790641,
            -0.0006545981341052748,
            0.002171250263105178,
            0.00017520051687385692
        ],
        [
            0.002523655446030255,
            -0.0005909836596792321,
            -0.0005093644046673204,
            0.0005108643385487408
        ],
        [
            0.0028287548468716593,
            0.0004559941955677998,
            0.0038094679946508994,
            -0.002426915518356181
        ],
        [
            0.002522365519895106,
            -0.00023570060267930879,
            0.00742690181188275,
            -0.0015850599452015008
        ],
        [
            0.00023440601107641154,
            0.0027536799596918882,
            -0.0011067230343597388,
            -0.0006258070476433796
        ]
    ],
    "W2":[
        [
            0.0016141509169500096,
            -0.0003749793177685911,
            3.6237160461948478e-06,
            0.0015408370495139658,
            -0.0004563691336664992,
            0.0009091091362554691
        ],
        [
            -0.005103182054522488,
            -0.0002528772667614368,
            -0.0001585556573311916,
            -0.0022865114591223428,
            -0.005096570500935178,
            -0.0007069845684728858
        ],
        [
            -0.00027670154403950146,
            -0.00019714279051496184,
            -0.0002501393611988852,
            -0.00033227291082738427,
            -0.0015777824539646454,
            -2.2489343337650127e-05
        ],
        [
            0.0013517794712597946,
            0.0009068320784412194,
            0.0005407329236117153,
            -4.0737341181861944e-05,
            -0.0001387532169049802,
            0.0001803393525579637
        ],
        [
            0.0007202427318027081,
            0.00034976447099027816,
            3.595538358992169e-05,
            0.0002959606373398546,
            0.0002810166879552395,
            0.000745478568844244
        ],
        [
            0.0003869423643229134,
            0.0008693342535786452,
            -0.0005653021377430524,
            0.0012870216029078022,
            -0.0006309523451806341,
            -0.0005573945136964011
        ]
    ],
    "W3":[
        [
            -0.0010985781289341336,
            -0.0062831693835525984,
            -0.00041772045925499385,
            0.0001797160384326036,
            -0.00042138595375105755,
            -0.00011992169629105492
        ],
        [
            0.0005301244705910929,
            -0.0021723778368464074,
            -0.00019145432794675452,
            -8.994667121304537e-05,
            0.0003303481457200091,
            -0.0013383556452469172
        ],
        [
            -0.001541267142280808,
            0.00017641920194909558,
            -0.00019755993677694612,
            0.0005199047696846214,
            7.602869469651395e-05,
            -0.000558032415103976
        ],
        [
            0.0005934548455020202,
            0.0009116003421221684,
            0.0003016979903387535,
            -0.0009018699513974505,
            -0.0009062185809408265,
            -0.0013742756479089688
        ],
        [
            -0.00033115229985506756,
            -0.0007413763888843984,
            0.0016042072952927046,
            0.0011535319436873396,
            -0.00046702917182696817,
            -0.0002833148575646989
        ],
        [
            -0.000996175152076164,
            -3.821379597685765e-05,
            0.0006514537229041215,
            -0.0004313460022184112,
            -0.00037738719356347945,
            0.0011245442435439147
        ]
    ],
    "W4":[
        [
            0.004503893727300428,
            0.0010122093834278425,
            0.0002511879365839729,
            -0.0005499451040580923,
            -0.00019382314865218995,
            -0.0003716536055624064
        ]
    ],
    "b1":[
        [
            -1.2808067973376964
        ],
        [
            -0.33644776964481093
        ],
        [
            -0.05094228638750281
        ],
        [
            -0.6332921373384179
        ],
        [
            -0.8374971445184115
        ],
        [
            -0.03529853529574749
        ]
    ],
    "b2":[
        [
            -0.9513776663641874
        ],
        [
            1.2125197723426888
        ],
        [
            0.0
        ],
        [
            -0.7021259395294965
        ],
        [
            -0.4219824320032616
        ],
        [
            -0.1476142589181872
        ]
    ],
    "b3":[
        [
            -0.5544007231849074
        ],
        [
            -0.12027836346555718
        ],
        [
            -0.853893228468487
        ],
        [
            -0.4081552903544134
        ],
        [
            -0.17409845484059494
        ],
        [
            -0.07727008281796818
        ]
    ],
    "b4":[
        [
            0.28559473305067595
        ]
    ]
}