{
    "W1":[
        [
            0.12064257694515615,
            0.12608132861019208,
            0.1284686803536927,
            0.22090424123905758
        ],
        [
            0.353543559326853,
            -0.4819899568949064,
            0.39320425570107864,
            0.7036779332607123
        ],
        [
            -0.4160170611442799,
            -0.3580312972008408,
            0.5842381659411069,
            -0.13864074145545685
        ],
        [
            -0.7931816305745731,
            0.4471926629350387,
            0.17408516534538931,
            0.3672576840041157
        ],
        [
            -0.17028166999359204,
            0.20461340756986296,
            -0.04870171499860025,
            -0.41824396138797937
        ],
        [
            -0.542886643903522,
            0.21078755793491688,
            0.2818355980581042,
            -0.9939813717784766
        ]
    ],
    "W2":[
        [
            -0.4371108683136587,
            -0.07809447799804792,
            0.21206493184080077,
            -0.29856992013238554,
            -0.4827482110461935,
            0.28040983378828377
        ],
        [
            0.18390927343121657,
            -0.025581650770490887,
            -0.3252610194371205,
            -0.3103332763474612,
            -0.31914220606984206,
            0.34667661754826545
        ],
        [
            -0.7398221751209849,
            -0.24448941292827422,
            -0.6176832362661054,
            -0.8135238103584674,
            0.03315474416451681,
            -0.3479966811019793
        ],
        [
            0.16819279404542395,
            -0.011143276512834312,
            -0.015516784879235905,
            -0.39743440107363637,
            -0.07395062119461385,
            0.49293099866629153
        ],
        [
            -0.28074280888429526,
            0.014646460787102489,
            0.24907724176773727,
            -0.6121646507548584,
            0.11748413002531384,
            0.5478751486903572
        ],
        [
            0.341749103866965,
            -0.7408482199071293,
            -0.5170722887722452,
            -0.12935580273587421,
            -0.3439897556301124,
            0.6286996980905271
        ]
    ],
    "W3":[
        [
            0.6032999680696923,
            0.04917934773005916,
            -0.03667681749172928,
            -0.07005530047271158,
            0.2737559728153189,
            0.2905918638561197
        ],
        [
            0.4320970272646296,
            -0.5265435525573031,
            0.0051695815028063264,
            -0.4733364958785564,
            0.6629436059738641,
            0.15939394239121535
        ],
        [
            0.37265575133066786,
            0.42552000685892327,
            0.2225948656299376,
            0.5484502188043929,
            0.2146276464448867,
            -0.1413205283807254
        ],
        [
            0.4590868542678434,
            0.5926727049900534,
            -0.14265713119075565,
            0.3700064127644623,
            0.20017272720247312,
            -0.42828568689298846
        ],
        [
            -0.037936558111129684,
            -0.7708621601706184,
            -0.3206066360554688,
            -0.027973367701428522,
            -0.1473298745681021,
            -0.778607101615903
        ],
        [
            -0.030442240261827295,
            -0.09932715997464478,
            0.23643701621527624,
            0.5830852192181163,
            0.041331835647324115,
            -0.042784864848011986
        ]
    ],
    "W4":[
        [
            -0.17973889383039096,
            -0.5666838069429445,
            0.20891106392107178,
            0.027122661616848107,
            -0.2817949550694894,
            -0.13811156289217877
        ]
    ],
    "b1":[
        [
            -0.3563150372398907
        ],
        [
            -0.13835822125853872
        ],
        [
            -0.4045230398830576
        ],
        [
            0.049166330834042114
        ],
        [
            -0.07508791153257545
        ],
        [
            -0.38110780755550216
        ]
    ],
    "b2":[
        [
            -0.08736770447652455
        ],
        [
            -0.05503230142563602
        ],
        [
            -0.01895504727529253
        ],
        [
            -0.10317062515265966
        ],
        [
            -0.18972969982024188
        ],
        [
            -0.04080846553009514
        ]
    ],
    "b3":[
        [
            -0.006411047796291198
        ],
        [
            -0.04190864678435668
        ],
        [
            -0.04772457016737995
        ],
        [
            -0.004516617440290082
        ],
        [
            0.0
        ],
        [
            -0.0007555933132343887
        ]
    ],
    "b4":[
        [
            0.28563947894745273
        ]
    ]
}